{"layers":[{"1":{},"2":{},"3":{},"4":{},"5":{},"6":{},"7":{},"8":{}},{"0":{"bias":-0.15548830958390855,"weights":{"1":-0.01147218929342911,"2":-0.0414043550912289,"3":-0.07227396309114974,"4":0.10486630251891933,"5":-0.027347825334593494,"6":0.19655643826611358,"7":0.011879916156456031,"8":-0.11008666144423167}},"1":{"bias":0.12031476038786167,"weights":{"1":-0.017751052518792304,"2":-0.010217563257969764,"3":-0.1876008130697978,"4":0.04638822301342357,"5":-0.06413472938299919,"6":0.08026629368826008,"7":0.03732392423837649,"8":0.19067370220138907}},"2":{"bias":-0.01289920701982457,"weights":{"1":-0.10555103084985082,"2":-0.0556161837557323,"3":0.15233984329756417,"4":0.06656520423498088,"5":-0.06814194329995577,"6":-0.015490286880917074,"7":0.00757635935228396,"8":-0.002594350734538562}},"3":{"bias":-0.12449131213120336,"weights":{"1":0.1563767757088197,"2":0.10213421693148739,"3":0.16364731693717366,"4":-0.0037920743405569267,"5":-0.08939106261280652,"6":0.06397019054817682,"7":-0.02402490612042435,"8":-0.12058961486366865}},"4":{"bias":0.0426372881064129,"weights":{"1":0.011377867366609696,"2":-0.09268315149522054,"3":0.16276158994012851,"4":0.19550633659535427,"5":-0.13535326341217976,"6":0.07913082070597782,"7":-0.07181896198591817,"8":-0.08005038168332207}},"5":{"bias":0.06025238874802509,"weights":{"1":-0.06407803565847053,"2":0.17481963859287708,"3":-0.09517303564237728,"4":-0.041407403057686185,"5":0.08292979338554368,"6":-0.03728994232254394,"7":0.013241492224612116,"8":-0.1457936989946881}},"6":{"bias":0.07824622541455233,"weights":{"1":-0.010753085863264905,"2":0.09305091991233586,"3":0.08914561883690716,"4":0.08801510797026516,"5":0.12836351596894605,"6":-0.0653324268091941,"7":0.023687532145110265,"8":0.19694659325438482}},"7":{"bias":-0.14357971252656462,"weights":{"1":0.10838173991050029,"2":-0.09832033710573412,"3":-0.15365610430036286,"4":-0.0011112968439290893,"5":-0.02699843617175323,"6":0.1082445239646306,"7":0.10895974915455484,"8":-0.17840732531641226}}},{"0":{"bias":-0.17860539792938462,"weights":{"0":-0.09812344564260524,"1":0.09171935470771855,"2":0.019640744321122724,"3":0.19515225324313856,"4":0.1698650398862883,"5":0.16490367040464776,"6":-0.17952042797577217,"7":0.06004398066854123}},"1":{"bias":0.022276184783670834,"weights":{"0":-0.1119570382928732,"1":-0.06793298623661592,"2":-0.051970562845616075,"3":-0.10790763113161166,"4":0.09178625553693183,"5":-0.16657358629490465,"6":-0.1550128456265847,"7":0.04079177437657013}},"2":{"bias":0.1858782171862851,"weights":{"0":-0.1773253829008283,"1":0.16775759282939262,"2":-0.19937498742517534,"3":-0.19459549405156476,"4":-0.12927628066534774,"5":-0.01153080394467197,"6":0.11128574790590945,"7":0.09706391226742496}},"3":{"bias":-0.0044575466576064655,"weights":{"0":-0.16549149968501192,"1":-0.11740061711770014,"2":0.13324644483106002,"3":-0.1576732911149192,"4":0.05089420480949173,"5":0.16500333464527858,"6":-0.020132049343364686,"7":-0.04713237110698622}},"4":{"bias":-0.1560390926548008,"weights":{"0":-0.08852758171798228,"1":-0.016882037385879286,"2":0.11073072411420232,"3":0.012453317342961729,"4":0.10204286133446676,"5":0.16368663399500127,"6":-0.08266034023922796,"7":0.049032392285156455}},"5":{"bias":-0.005303218713192584,"weights":{"0":-0.12804013114871485,"1":-0.07385801255256964,"2":0.11302400523772603,"3":0.08721464633828273,"4":0.16186819092986143,"5":0.15314571635903468,"6":0.1871535627748843,"7":-0.10537347237883932}},"6":{"bias":-0.05489257460305081,"weights":{"0":-0.15565535248575596,"1":0.09562783945490495,"2":0.11452518507019915,"3":0.06963735911870035,"4":0.12518206762667078,"5":0.0326365683640291,"6":0.07507570595001885,"7":0.1688830937464797}},"7":{"bias":0.17404518166586322,"weights":{"0":0.12072935809935252,"1":-0.047315237022898984,"2":0.08529014467368838,"3":0.13983331087229453,"4":0.052730945491973484,"5":0.1527854808714256,"6":0.19991968794548493,"7":0.12147374693268544}}},{"0":{"bias":0.0030065749550713832,"weights":{"0":0.1210109975009469,"1":0.06319002125511274,"2":-0.037568609688644415,"3":0.22889056940280905,"4":0.1594193520210112,"5":0.07508284440749326,"6":-0.011863814917545052,"7":0.07595546998950903}},"1":{"bias":0.2100066668018726,"weights":{"0":0.1890326593767772,"1":0.21310171182814008,"2":0.22129460521872177,"3":-0.09116532179693194,"4":0.2018042585300251,"5":-0.12754410481914638,"6":-0.11769304486085636,"7":0.07410880765707566}},"2":{"bias":-0.04329568086245051,"weights":{"0":0.03404607400830738,"1":0.19976145030354658,"2":0.18885250598075415,"3":-0.14924510590538143,"4":-0.11407972617163782,"5":-0.13996796827803784,"6":0.054265667552715384,"7":-0.07315753891258024}},"3":{"bias":0.15578420616306599,"weights":{"0":0.10488149749782474,"1":-0.11597833581146541,"2":0.013265708026088315,"3":-0.06958153173828796,"4":0.09161215463120924,"5":0.13360482980243027,"6":-0.015537707839849977,"7":-0.14533106699030948}},"4":{"bias":0.005114043306103617,"weights":{"0":-0.0014927559662685538,"1":0.018531006792871747,"2":-0.05482311146932683,"3":-0.03763160897038956,"4":0.21560972943627027,"5":0.0752854486708571,"6":0.24265561015308407,"7":0.19763517047604784}},"5":{"bias":-0.12299780010294288,"weights":{"0":-0.00699623478140083,"1":0.08629981954486284,"2":0.084555735172599,"3":0.17791489175994807,"4":0.03396457879987503,"5":-0.054548527600324984,"6":0.17619277597244215,"7":0.06852992889291433}},"6":{"bias":0.23480550780522658,"weights":{"0":-0.020750938613725164,"1":-0.0796103764120972,"2":-0.07921366408976153,"3":0.07177359028507493,"4":-0.05975263565291628,"5":-0.05754719233625915,"6":0.19180827675649165,"7":0.24805554059032262}},"7":{"bias":0.028028183270091538,"weights":{"0":-0.015736965948409714,"1":-0.07045670730092495,"2":0.0810490605720101,"3":0.12103420270656533,"4":-0.09357614615318711,"5":-0.0037259696897556298,"6":0.13630232643236148,"7":0.17976351745712482}}},{"food":{"bias":0.7435166391711372,"weights":{"0":0.7352564153818719,"1":0.6199882925530943,"2":0.3996049906247757,"3":0.3843826659613187,"4":0.7329802013916019,"5":0.4184390975867237,"6":0.7017948814984174,"7":0.4773101302039087}}}],"outputLookup":true,"inputLookup":true}
